<?xml version="1.0"?>
<opencv_storage>
<cascade>
  <stageType>BOOST</stageType>
  <featureType>HAAR</featureType>
  <height>24</height>
  <width>24</width>
  <stageParams>
    <boostType>GAB</boostType>
    <minHitRate>9.9500000476837158e-01</minHitRate>
    <maxFalseAlarm>5.0000000000000000e-01</maxFalseAlarm>
    <weightTrimRate>9.4999999999999996e-01</weightTrimRate>
    <maxDepth>1</maxDepth>
    <maxWeakCount>100</maxWeakCount></stageParams>
  <featureParams>
    <maxCatCount>0</maxCatCount>
    <featSize>1</featSize>
    <mode>BASIC</mode></featureParams>
  <stageNum>5</stageNum>
  <stages>
    <!-- stage 0 -->
    <_>
      <maxWeakCount>2</maxWeakCount>
      <stageThreshold>-1.2129905819892883e-01</stageThreshold>
      <weakClassifiers>
        <_>
          <internalNodes>
            0 -1 10 1.2088600546121597e-02</internalNodes>
          <leafValues>
            -9.7683399915695190e-01 8.9473682641983032e-01</leafValues></_>
        <_>
          <internalNodes>
            0 -1 6 -4.5289485715329647e-03</internalNodes>
          <leafValues>
            8.5553491115570068e-01 -9.8340564966201782e-01</leafValues></_></weakClassifiers></_>
    <!-- stage 1 -->
    <_>
      <maxWeakCount>2</maxWeakCount>
      <stageThreshold>-2.9723238945007324e-01</stageThreshold>
      <weakClassifiers>
        <_>
          <internalNodes>
            0 -1 2 -1.5624092891812325e-02</internalNodes>
          <leafValues>
            6.5217393636703491e-01 -9.8431372642517090e-01</leafValues></_>
        <_>
          <internalNodes>
            0 -1 4 -1.0976329445838928e-02</internalNodes>
          <leafValues>
            7.4251323938369751e-01 -9.4940632581710815e-01</leafValues></_></weakClassifiers></_>
    <!-- stage 2 -->
    <_>
      <maxWeakCount>2</maxWeakCount>
      <stageThreshold>-5.2110332250595093e-01</stageThreshold>
      <weakClassifiers>
        <_>
          <internalNodes>
            0 -1 7 2.3986196145415306e-02</internalNodes>
          <leafValues>
            -9.5330739021301270e-01 4.2857143282890320e-01</leafValues></_>
        <_>
          <internalNodes>
            0 -1 8 -1.3582907617092133e-02</internalNodes>
          <leafValues>
            6.3874709606170654e-01 -9.4967472553253174e-01</leafValues></_></weakClassifiers></_>
    <!-- stage 3 -->
    <_>
      <maxWeakCount>3</maxWeakCount>
      <stageThreshold>-9.9474370479583740e-01</stageThreshold>
      <weakClassifiers>
        <_>
          <internalNodes>
            0 -1 0 -1.3266679644584656e-01</internalNodes>
          <leafValues>
            8.5714286565780640e-01 -9.3939393758773804e-01</leafValues></_>
        <_>
          <internalNodes>
            0 -1 1 -4.0417662262916565e-01</internalNodes>
          <leafValues>
            8.3194631338119507e-01 -9.1097342967987061e-01</leafValues></_>
        <_>
          <internalNodes>
            0 -1 3 -1.8655128777027130e-02</internalNodes>
          <leafValues>
            8.5659241676330566e-01 -8.8729608058929443e-01</leafValues></_></weakClassifiers></_>
    <!-- stage 4 -->
    <_>
      <maxWeakCount>2</maxWeakCount>
      <stageThreshold>-3.0452507734298706e-01</stageThreshold>
      <weakClassifiers>
        <_>
          <internalNodes>
            0 -1 5 -2.8548154979944229e-02</internalNodes>
          <leafValues>
            6.2500000000000000e-01 -9.3893128633499146e-01</leafValues></_>
        <_>
          <internalNodes>
            0 -1 9 -5.7192137464880943e-03</internalNodes>
          <leafValues>
            8.1962716579437256e-01 -9.2952507734298706e-01</leafValues></_></weakClassifiers></_></stages>
  <features>
    <_>
      <rects>
        <_>
          0 0 24 3 -1.</_>
        <_>
          8 0 8 3 3.</_></rects>
      <tilted>0</tilted></_>
    <_>
      <rects>
        <_>
          0 0 24 24 -1.</_>
        <_>
          8 0 8 24 3.</_></rects>
      <tilted>0</tilted></_>
    <_>
      <rects>
        <_>
          0 22 6 2 -1.</_>
        <_>
          3 22 3 2 2.</_></rects>
      <tilted>0</tilted></_>
    <_>
      <rects>
        <_>
          0 23 14 1 -1.</_>
        <_>
          7 23 7 1 2.</_></rects>
      <tilted>0</tilted></_>
    <_>
      <rects>
        <_>
          1 22 9 2 -1.</_>
        <_>
          4 22 3 2 3.</_></rects>
      <tilted>0</tilted></_>
    <_>
      <rects>
        <_>
          4 4 18 4 -1.</_>
        <_>
          4 6 18 2 2.</_></rects>
      <tilted>0</tilted></_>
    <_>
      <rects>
        <_>
          6 17 6 4 -1.</_>
        <_>
          6 17 3 2 2.</_>
        <_>
          9 19 3 2 2.</_></rects>
      <tilted>0</tilted></_>
    <_>
      <rects>
        <_>
          7 13 8 6 -1.</_>
        <_>
          7 13 4 3 2.</_>
        <_>
          11 16 4 3 2.</_></rects>
      <tilted>0</tilted></_>
    <_>
      <rects>
        <_>
          8 4 15 1 -1.</_>
        <_>
          13 4 5 1 3.</_></rects>
      <tilted>0</tilted></_>
    <_>
      <rects>
        <_>
          18 12 3 3 -1.</_>
        <_>
          18 13 3 1 3.</_></rects>
      <tilted>0</tilted></_>
    <_>
      <rects>
        <_>
          22 6 2 18 -1.</_>
        <_>
          23 6 1 18 2.</_></rects>
      <tilted>0</tilted></_></features></cascade>
</opencv_storage>
